digraph Tree {
node [shape=box, style="filled, rounded", color="black", fontname=helvetica] ;
edge [fontname=helvetica] ;
rankdir=LR ;
0 [label="thal_reversible_defect <= 0.5\ngini = 0.494\nsamples = 126\nvalue = [70, 56]\nclass = No Heart Disease", fillcolor="#e5813933"] ;
1 [label="exercise_induced_angina_true <= 0.5\ngini = 0.361\nsamples = 76\nvalue = [58, 18]\nclass = No Heart Disease", fillcolor="#e58139b0"] ;
0 -> 1 [labeldistance=2.5, labelangle=-45, headlabel="True"] ;
2 [label="serum_cholesterol_mg_per_dl <= 317.0\ngini = 0.278\nsamples = 66\nvalue = [55, 11]\nclass = No Heart Disease", fillcolor="#e58139cc"] ;
1 -> 2 ;
3 [label="oldpeak_eq_st_depression <= 2.35\ngini = 0.206\nsamples = 60\nvalue = [53, 7]\nclass = No Heart Disease", fillcolor="#e58139dd"] ;
2 -> 3 ;
4 [label="num_major_vessels <= 0.5\ngini = 0.16\nsamples = 57\nvalue = [52, 5]\nclass = No Heart Disease", fillcolor="#e58139e6"] ;
3 -> 4 ;
5 [label="resting_blood_pressure <= 109.0\ngini = 0.046\nsamples = 42\nvalue = [41, 1]\nclass = No Heart Disease", fillcolor="#e58139f9"] ;
4 -> 5 ;
6 [label="gini = 0.32\nsamples = 5\nvalue = [4, 1]\nclass = No Heart Disease", fillcolor="#e58139bf"] ;
5 -> 6 ;
7 [label="gini = 0.0\nsamples = 37\nvalue = [37, 0]\nclass = No Heart Disease", fillcolor="#e58139ff"] ;
5 -> 7 ;
8 [label="serum_cholesterol_mg_per_dl <= 217.5\ngini = 0.391\nsamples = 15\nvalue = [11, 4]\nclass = No Heart Disease", fillcolor="#e58139a2"] ;
4 -> 8 ;
9 [label="gini = 0.375\nsamples = 4\nvalue = [1, 3]\nclass = Heart Disease", fillcolor="#399de5aa"] ;
8 -> 9 ;
10 [label="max_heart_rate_achieved <= 167.5\ngini = 0.165\nsamples = 11\nvalue = [10, 1]\nclass = No Heart Disease", fillcolor="#e58139e6"] ;
8 -> 10 ;
11 [label="gini = 0.0\nsamples = 8\nvalue = [8, 0]\nclass = No Heart Disease", fillcolor="#e58139ff"] ;
10 -> 11 ;
12 [label="gini = 0.444\nsamples = 3\nvalue = [2, 1]\nclass = No Heart Disease", fillcolor="#e581397f"] ;
10 -> 12 ;
13 [label="gini = 0.444\nsamples = 3\nvalue = [1, 2]\nclass = Heart Disease", fillcolor="#399de57f"] ;
3 -> 13 ;
14 [label="resting_blood_pressure <= 138.0\ngini = 0.444\nsamples = 6\nvalue = [2, 4]\nclass = Heart Disease", fillcolor="#399de57f"] ;
2 -> 14 ;
15 [label="gini = 0.0\nsamples = 3\nvalue = [0, 3]\nclass = Heart Disease", fillcolor="#399de5ff"] ;
14 -> 15 ;
16 [label="gini = 0.444\nsamples = 3\nvalue = [2, 1]\nclass = No Heart Disease", fillcolor="#e581397f"] ;
14 -> 16 ;
17 [label="slope_of_peak_exercise_st_segment_upsloping <= 0.5\ngini = 0.42\nsamples = 10\nvalue = [3, 7]\nclass = Heart Disease", fillcolor="#399de592"] ;
1 -> 17 ;
18 [label="gini = 0.0\nsamples = 6\nvalue = [0, 6]\nclass = Heart Disease", fillcolor="#399de5ff"] ;
17 -> 18 ;
19 [label="gini = 0.375\nsamples = 4\nvalue = [3, 1]\nclass = No Heart Disease", fillcolor="#e58139aa"] ;
17 -> 19 ;
20 [label="max_heart_rate_achieved <= 161.5\ngini = 0.365\nsamples = 50\nvalue = [12, 38]\nclass = Heart Disease", fillcolor="#399de5ae"] ;
0 -> 20 [labeldistance=2.5, labelangle=45, headlabel="False"] ;
21 [label="oldpeak_eq_st_depression <= 0.6\ngini = 0.255\nsamples = 40\nvalue = [6, 34]\nclass = Heart Disease", fillcolor="#399de5d2"] ;
20 -> 21 ;
22 [label="age <= 49.5\ngini = 0.496\nsamples = 11\nvalue = [5, 6]\nclass = Heart Disease", fillcolor="#399de52a"] ;
21 -> 22 ;
23 [label="gini = 0.0\nsamples = 4\nvalue = [0, 4]\nclass = Heart Disease", fillcolor="#399de5ff"] ;
22 -> 23 ;
24 [label="max_heart_rate_achieved <= 148.5\ngini = 0.408\nsamples = 7\nvalue = [5, 2]\nclass = No Heart Disease", fillcolor="#e5813999"] ;
22 -> 24 ;
25 [label="gini = 0.0\nsamples = 4\nvalue = [4, 0]\nclass = No Heart Disease", fillcolor="#e58139ff"] ;
24 -> 25 ;
26 [label="gini = 0.444\nsamples = 3\nvalue = [1, 2]\nclass = Heart Disease", fillcolor="#399de57f"] ;
24 -> 26 ;
27 [label="age <= 66.5\ngini = 0.067\nsamples = 29\nvalue = [1, 28]\nclass = Heart Disease", fillcolor="#399de5f6"] ;
21 -> 27 ;
28 [label="gini = 0.0\nsamples = 26\nvalue = [0, 26]\nclass = Heart Disease", fillcolor="#399de5ff"] ;
27 -> 28 ;
29 [label="gini = 0.444\nsamples = 3\nvalue = [1, 2]\nclass = Heart Disease", fillcolor="#399de57f"] ;
27 -> 29 ;
30 [label="serum_cholesterol_mg_per_dl <= 215.5\ngini = 0.48\nsamples = 10\nvalue = [6, 4]\nclass = No Heart Disease", fillcolor="#e5813955"] ;
20 -> 30 ;
31 [label="gini = 0.0\nsamples = 5\nvalue = [5, 0]\nclass = No Heart Disease", fillcolor="#e58139ff"] ;
30 -> 31 ;
32 [label="gini = 0.32\nsamples = 5\nvalue = [1, 4]\nclass = Heart Disease", fillcolor="#399de5bf"] ;
30 -> 32 ;
}